digraph Tree {
node [shape=box, style="filled", color="black", fontname="helvetica"] ;
edge [fontname="helvetica"] ;
0 [label="흡연여부 <= 0.5\nsquared_error = 14478620203.592\nsamples = 936\nvalue = 131006.561", fillcolor="#f9e2d2"] ;
1 [label="나이 <= 45.5\nsquared_error = 3482909120.153\nsamples = 751\nvalue = 83750.067", fillcolor="#fceee4"] ;
0 -> 1 [labeldistance=2.5, labelangle=45, headlabel="True"] ;
2 [label="보장범위 <= 13.5\nsquared_error = 1988987702.952\nsamples = 464\nvalue = 56275.884", fillcolor="#fdf5ef"] ;
1 -> 2 ;
3 [label="나이 <= 32.5\nsquared_error = 640412437.544\nsamples = 432\nvalue = 46801.581", fillcolor="#fdf7f3"] ;
2 -> 3 ;
4 [label="나이 <= 24.5\nsquared_error = 151862848.089\nsamples = 249\nvalue = 30322.108", fillcolor="#fefbf9"] ;
3 -> 4 ;
5 [label="자녀수 <= 1.5\nsquared_error = 82391758.805\nsamples = 139\nvalue = 22835.424", fillcolor="#fffdfc"] ;
4 -> 5 ;
6 [label="납입기간 <= 35.0\nsquared_error = 45122652.621\nsamples = 117\nvalue = 20236.573", fillcolor="#fffefd"] ;
5 -> 6 ;
7 [label="보장범위 <= 8.5\nsquared_error = 51415702.645\nsamples = 53\nvalue = 24977.358", fillcolor="#fffdfb"] ;
6 -> 7 ;
8 [label="squared_error = 4819422.068\nsamples = 41\nvalue = 23573.073", fillcolor="#fffdfc"] ;
7 -> 8 ;
9 [label="squared_error = 180861373.056\nsamples = 12\nvalue = 29775.333", fillcolor="#fefbf9"] ;
7 -> 9 ;
10 [label="보장범위 <= 9.5\nsquared_error = 5885881.832\nsamples = 64\nvalue = 16310.609", fillcolor="#ffffff"] ;
6 -> 10 ;
11 [label="squared_error = 6571597.506\nsamples = 41\nvalue = 15432.61", fillcolor="#ffffff"] ;
10 -> 11 ;
12 [label="squared_error = 839704.628\nsamples = 23\nvalue = 17875.739", fillcolor="#fffefe"] ;
10 -> 12 ;
13 [label="자녀수 <= 2.5\nsquared_error = 53651836.242\nsamples = 22\nvalue = 36656.591", fillcolor="#fefaf7"] ;
5 -> 13 ;
14 [label="squared_error = 20712265.36\nsamples = 10\nvalue = 30482.2", fillcolor="#fefbf9"] ;
13 -> 14 ;
15 [label="성별_여성 <= 0.5\nsquared_error = 22857848.91\nsamples = 12\nvalue = 41801.917", fillcolor="#fef8f5"] ;
13 -> 15 ;
16 [label="squared_error = 2712607.806\nsamples = 6\nvalue = 44774.167", fillcolor="#fef8f4"] ;
15 -> 16 ;
17 [label="squared_error = 25334549.889\nsamples = 6\nvalue = 38829.667", fillcolor="#fef9f6"] ;
15 -> 17 ;
18 [label="자녀수 <= 1.5\nsquared_error = 79321631.811\nsamples = 110\nvalue = 39782.555", fillcolor="#fef9f6"] ;
4 -> 18 ;
19 [label="나이 <= 29.5\nsquared_error = 41261021.265\nsamples = 71\nvalue = 35463.789", fillcolor="#fefaf7"] ;
18 -> 19 ;
20 [label="보장범위 <= 9.5\nsquared_error = 21562596.427\nsamples = 48\nvalue = 32229.104", fillcolor="#fefbf8"] ;
19 -> 20 ;
21 [label="squared_error = 6322292.787\nsamples = 19\nvalue = 27856.053", fillcolor="#fefcfa"] ;
20 -> 21 ;
22 [label="squared_error = 10809567.405\nsamples = 29\nvalue = 35094.207", fillcolor="#fefaf7"] ;
20 -> 22 ;
23 [label="보장범위 <= 9.5\nsquared_error = 14963344.767\nsamples = 23\nvalue = 42214.435", fillcolor="#fef8f5"] ;
19 -> 23 ;
24 [label="squared_error = 6466544.055\nsamples = 17\nvalue = 40419.059", fillcolor="#fef9f5"] ;
23 -> 24 ;
25 [label="squared_error = 4028181.222\nsamples = 6\nvalue = 47301.333", fillcolor="#fdf7f3"] ;
23 -> 25 ;
26 [label="나이 <= 29.5\nsquared_error = 52838893.917\nsamples = 39\nvalue = 47644.923", fillcolor="#fdf7f2"] ;
18 -> 26 ;
27 [label="자녀수 <= 2.5\nsquared_error = 15862124.64\nsamples = 20\nvalue = 42974.6", fillcolor="#fef8f4"] ;
26 -> 27 ;
28 [label="squared_error = 10202353.609\nsamples = 13\nvalue = 41373.923", fillcolor="#fef9f5"] ;
27 -> 28 ;
29 [label="squared_error = 12777958.204\nsamples = 7\nvalue = 45947.286", fillcolor="#fdf7f3"] ;
27 -> 29 ;
30 [label="보장범위 <= 10.5\nsquared_error = 44633565.839\nsamples = 19\nvalue = 52561.053", fillcolor="#fdf6f1"] ;
26 -> 30 ;
31 [label="squared_error = 14519320.862\nsamples = 15\nvalue = 49660.267", fillcolor="#fdf7f2"] ;
30 -> 31 ;
32 [label="squared_error = 7677648.5\nsamples = 4\nvalue = 63439.0", fillcolor="#fdf3ec"] ;
30 -> 32 ;
33 [label="보장범위 <= 12.5\nsquared_error = 432856908.424\nsamples = 183\nvalue = 69224.47", fillcolor="#fcf2ea"] ;
3 -> 33 ;
34 [label="보장범위 <= 10.5\nsquared_error = 202781320.392\nsamples = 176\nvalue = 66545.006", fillcolor="#fcf2eb"] ;
33 -> 34 ;
35 [label="나이 <= 37.5\nsquared_error = 50353835.445\nsamples = 68\nvalue = 54258.397", fillcolor="#fdf5f0"] ;
34 -> 35 ;
36 [label="보장범위 <= 9.5\nsquared_error = 19283236.036\nsamples = 38\nvalue = 49248.737", fillcolor="#fdf7f2"] ;
35 -> 36 ;
37 [label="squared_error = 7406613.959\nsamples = 7\nvalue = 42115.571", fillcolor="#fef8f5"] ;
36 -> 37 ;
38 [label="squared_error = 7881156.957\nsamples = 31\nvalue = 50859.452", fillcolor="#fdf6f1"] ;
36 -> 38 ;
39 [label="보장범위 <= 9.5\nsquared_error = 17654526.766\nsamples = 30\nvalue = 60603.967", fillcolor="#fdf4ed"] ;
35 -> 39 ;
40 [label="squared_error = 7021858.109\nsamples = 8\nvalue = 55965.125", fillcolor="#fdf5ef"] ;
39 -> 40 ;
41 [label="squared_error = 10850446.603\nsamples = 22\nvalue = 62290.818", fillcolor="#fdf3ed"] ;
39 -> 41 ;
42 [label="나이 <= 38.5\nsquared_error = 143858924.648\nsamples = 108\nvalue = 74281.019", fillcolor="#fcf0e8"] ;
34 -> 42 ;
43 [label="보장범위 <= 11.5\nsquared_error = 18936677.652\nsamples = 32\nvalue = 64655.812", fillcolor="#fcf3ec"] ;
42 -> 43 ;
44 [label="squared_error = 6255684.881\nsamples = 19\nvalue = 61814.526", fillcolor="#fdf4ed"] ;
43 -> 44 ;
45 [label="squared_error = 8427077.941\nsamples = 13\nvalue = 68808.462", fillcolor="#fcf2ea"] ;
43 -> 45 ;
46 [label="자녀수 <= 4.5\nsquared_error = 141024990.878\nsamples = 76\nvalue = 78333.737", fillcolor="#fcefe7"] ;
42 -> 46 ;
47 [label="squared_error = 80361304.71\nsamples = 72\nvalue = 76954.611", fillcolor="#fcf0e7"] ;
46 -> 47 ;
48 [label="squared_error = 582491520.5\nsamples = 4\nvalue = 103158.0", fillcolor="#fbe9dd"] ;
46 -> 48 ;
49 [label="squared_error = 1498466353.551\nsamples = 7\nvalue = 136593.857", fillcolor="#f9e1d0"] ;
33 -> 49 ;
50 [label="납입기간 <= 35.0\nsquared_error = 2623762068.093\nsamples = 32\nvalue = 184178.969", fillcolor="#f6d5be"] ;
2 -> 50 ;
51 [label="나이 <= 28.5\nsquared_error = 3262095724.247\nsamples = 18\nvalue = 202269.556", fillcolor="#f5d1b6"] ;
50 -> 51 ;
52 [label="squared_error = 359808455.967\nsamples = 11\nvalue = 230977.818", fillcolor="#f4caab"] ;
51 -> 52 ;
53 [label="squared_error = 4492536127.102\nsamples = 7\nvalue = 157156.571", fillcolor="#f8dcc8"] ;
51 -> 53 ;
54 [label="보장범위 <= 18.5\nsquared_error = 841276272.23\nsamples = 14\nvalue = 160919.643", fillcolor="#f8dbc7"] ;
50 -> 54 ;
55 [label="squared_error = 356415517.472\nsamples = 6\nvalue = 131223.833", fillcolor="#f9e2d2"] ;
54 -> 55 ;
56 [label="squared_error = 47505390.25\nsamples = 8\nvalue = 183191.5", fillcolor="#f6d6be"] ;
54 -> 56 ;
57 [label="보장범위 <= 11.5\nsquared_error = 2704839604.651\nsamples = 287\nvalue = 128168.258", fillcolor="#f9e3d3"] ;
1 -> 57 ;
58 [label="나이 <= 54.5\nsquared_error = 386919838.18\nsamples = 249\nvalue = 113127.02", fillcolor="#fae7d9"] ;
57 -> 58 ;
59 [label="납입기간 <= 25.0\nsquared_error = 205625137.605\nsamples = 121\nvalue = 98254.488", fillcolor="#fbebdf"] ;
58 -> 59 ;
60 [label="보장범위 <= 10.5\nsquared_error = 194667790.73\nsamples = 75\nvalue = 104887.173", fillcolor="#fae9dc"] ;
59 -> 60 ;
61 [label="나이 <= 52.5\nsquared_error = 39980362.467\nsamples = 55\nvalue = 99660.473", fillcolor="#fbeade"] ;
60 -> 61 ;
62 [label="자녀수 <= 0.5\nsquared_error = 37116515.033\nsamples = 35\nvalue = 97191.771", fillcolor="#fbebdf"] ;
61 -> 62 ;
63 [label="squared_error = 28447267.408\nsamples = 14\nvalue = 92879.857", fillcolor="#fbece1"] ;
62 -> 63 ;
64 [label="squared_error = 22237563.664\nsamples = 21\nvalue = 100066.381", fillcolor="#fbeade"] ;
62 -> 64 ;
65 [label="성별_남성 <= 0.5\nsquared_error = 15662381.11\nsamples = 20\nvalue = 103980.7", fillcolor="#fae9dd"] ;
61 -> 65 ;
66 [label="squared_error = 11050046.225\nsamples = 13\nvalue = 102095.077", fillcolor="#fbeadd"] ;
65 -> 66 ;
67 [label="squared_error = 5361832.816\nsamples = 7\nvalue = 107482.571", fillcolor="#fae8db"] ;
65 -> 67 ;
68 [label="나이 <= 51.5\nsquared_error = 338337226.44\nsamples = 20\nvalue = 119260.6", fillcolor="#fae5d7"] ;
60 -> 68 ;
69 [label="squared_error = 1301860771.188\nsamples = 4\nvalue = 135013.25", fillcolor="#f9e1d1"] ;
68 -> 69 ;
70 [label="나이 <= 53.5\nsquared_error = 19910720.871\nsamples = 16\nvalue = 115322.438", fillcolor="#fae6d8"] ;
68 -> 70 ;
71 [label="squared_error = 4239613.44\nsamples = 10\nvalue = 113588.6", fillcolor="#fae7d9"] ;
70 -> 71 ;
72 [label="squared_error = 32668377.806\nsamples = 6\nvalue = 118212.167", fillcolor="#fae6d7"] ;
70 -> 72 ;
73 [label="자녀수 <= 1.5\nsquared_error = 34817353.002\nsamples = 46\nvalue = 87440.326", fillcolor="#fbede3"] ;
59 -> 73 ;
74 [label="나이 <= 48.5\nsquared_error = 28792367.59\nsamples = 32\nvalue = 85306.688", fillcolor="#fbeee4"] ;
73 -> 74 ;
75 [label="성별_남성 <= 0.5\nsquared_error = 16784318.681\nsamples = 23\nvalue = 83829.435", fillcolor="#fceee4"] ;
74 -> 75 ;
76 [label="squared_error = 12177823.01\nsamples = 10\nvalue = 81143.7", fillcolor="#fcefe5"] ;
75 -> 76 ;
77 [label="squared_error = 10511034.852\nsamples = 13\nvalue = 85895.385", fillcolor="#fbeee4"] ;
75 -> 77 ;
78 [label="squared_error = 39650531.654\nsamples = 9\nvalue = 89081.889", fillcolor="#fbede2"] ;
74 -> 78 ;
79 [label="성별_여성 <= 0.5\nsquared_error = 14399192.883\nsamples = 14\nvalue = 92317.214", fillcolor="#fbece1"] ;
73 -> 79 ;
80 [label="squared_error = 2731450.5\nsamples = 4\nvalue = 95149.0", fillcolor="#fbebe0"] ;
79 -> 80 ;
81 [label="squared_error = 14575644.05\nsamples = 10\nvalue = 91184.5", fillcolor="#fbece2"] ;
79 -> 81 ;
82 [label="나이 <= 60.5\nsquared_error = 151543364.635\nsamples = 128\nvalue = 127186.211", fillcolor="#f9e3d4"] ;
58 -> 82 ;
83 [label="보장범위 <= 10.5\nsquared_error = 65523688.366\nsamples = 82\nvalue = 120320.78", fillcolor="#fae5d6"] ;
82 -> 83 ;
84 [label="squared_error = 2926242.512\nsamples = 11\nvalue = 107604.182", fillcolor="#fae8db"] ;
83 -> 84 ;
85 [label="나이 <= 58.5\nsquared_error = 46286332.266\nsamples = 71\nvalue = 122290.958", fillcolor="#fae5d6"] ;
83 -> 85 ;
86 [label="자녀수 <= 1.5\nsquared_error = 33532606.471\nsamples = 45\nvalue = 119389.2", fillcolor="#fae5d7"] ;
85 -> 86 ;
87 [label="squared_error = 16339072.613\nsamples = 33\nvalue = 116991.848", fillcolor="#fae6d8"] ;
86 -> 87 ;
88 [label="squared_error = 21545852.243\nsamples = 12\nvalue = 125981.917", fillcolor="#f9e4d4"] ;
86 -> 88 ;
89 [label="자녀수 <= 1.5\nsquared_error = 28563442.485\nsamples = 26\nvalue = 127313.231", fillcolor="#f9e3d4"] ;
85 -> 89 ;
90 [label="squared_error = 16973503.926\nsamples = 22\nvalue = 125980.727", fillcolor="#f9e4d4"] ;
89 -> 90 ;
91 [label="squared_error = 28831635.5\nsamples = 4\nvalue = 134642.0", fillcolor="#f9e2d1"] ;
89 -> 91 ;
92 [label="자녀수 <= 1.5\nsquared_error = 71083220.59\nsamples = 46\nvalue = 139424.587", fillcolor="#f9e0cf"] ;
82 -> 92 ;
93 [label="나이 <= 62.5\nsquared_error = 32419650.427\nsamples = 39\nvalue = 137020.667", fillcolor="#f9e1d0"] ;
92 -> 93 ;
94 [label="성별_남성 <= 0.5\nsquared_error = 14606020.094\nsamples = 19\nvalue = 132845.895", fillcolor="#f9e2d1"] ;
93 -> 94 ;
95 [label="squared_error = 15256867.284\nsamples = 9\nvalue = 130864.222", fillcolor="#f9e2d2"] ;
94 -> 95 ;
96 [label="squared_error = 7305043.24\nsamples = 10\nvalue = 134629.4", fillcolor="#f9e2d1"] ;
94 -> 96 ;
97 [label="성별_여성 <= 0.5\nsquared_error = 17055894.21\nsamples = 20\nvalue = 140986.7", fillcolor="#f9e0ce"] ;
93 -> 97 ;
98 [label="squared_error = 9003143.76\nsamples = 10\nvalue = 143430.8", fillcolor="#f8dfcd"] ;
97 -> 98 ;
99 [label="squared_error = 13161395.04\nsamples = 10\nvalue = 138542.6", fillcolor="#f9e1cf"] ;
97 -> 99 ;
100 [label="squared_error = 74918499.837\nsamples = 7\nvalue = 152817.857", fillcolor="#f8ddca"] ;
92 -> 100 ;
101 [label="납입기간 <= 25.0\nsquared_error = 6696841740.208\nsamples = 38\nvalue = 226727.947", fillcolor="#f4cbad"] ;
57 -> 101 ;
102 [label="보장범위 <= 12.5\nsquared_error = 1927182016.998\nsamples = 24\nvalue = 273656.458", fillcolor="#f2bf9b"] ;
101 -> 102 ;
103 [label="자녀수 <= 0.5\nsquared_error = 1274820172.99\nsamples = 20\nvalue = 261459.1", fillcolor="#f2c2a0"] ;
102 -> 103 ;
104 [label="squared_error = 994352976.36\nsamples = 10\nvalue = 246842.8", fillcolor="#f3c6a5"] ;
103 -> 104 ;
105 [label="squared_error = 1128014918.24\nsamples = 10\nvalue = 276075.4", fillcolor="#f2bf9a"] ;
103 -> 105 ;
106 [label="squared_error = 725724727.688\nsamples = 4\nvalue = 334643.25", fillcolor="#efb083"] ;
102 -> 106 ;
107 [label="자녀수 <= 1.5\nsquared_error = 4626033669.066\nsamples = 14\nvalue = 146279.071", fillcolor="#f8dfcc"] ;
101 -> 107 ;
108 [label="squared_error = 696096095.188\nsamples = 4\nvalue = 251351.25", fillcolor="#f3c5a3"] ;
107 -> 108 ;
109 [label="squared_error = 15517581.16\nsamples = 10\nvalue = 104250.2", fillcolor="#fae9dd"] ;
107 -> 109 ;
110 [label="BMI <= 30.05\nsquared_error = 13248792157.75\nsamples = 185\nvalue = 322842.384", fillcolor="#efb388"] ;
0 -> 110 [labeldistance=2.5, labelangle=-45, headlabel="False"] ;
111 [label="나이 <= 41.0\nsquared_error = 2861028417.526\nsamples = 84\nvalue = 211993.214", fillcolor="#f5ceb3"] ;
110 -> 111 ;
112 [label="납입기간 <= 35.0\nsquared_error = 529286551.76\nsamples = 48\nvalue = 176642.229", fillcolor="#f7d7c0"] ;
111 -> 112 ;
113 [label="보장범위 <= 14.5\nsquared_error = 411220068.653\nsamples = 22\nvalue = 192408.727", fillcolor="#f6d3ba"] ;
112 -> 113 ;
114 [label="BMI <= 25.6\nsquared_error = 191064817.951\nsamples = 18\nvalue = 187250.222", fillcolor="#f6d5bc"] ;
113 -> 114 ;
115 [label="squared_error = 102970141.868\nsamples = 11\nvalue = 178688.364", fillcolor="#f7d7c0"] ;
114 -> 115 ;
116 [label="squared_error = 33285561.102\nsamples = 7\nvalue = 200704.571", fillcolor="#f6d1b7"] ;
114 -> 116 ;
117 [label="squared_error = 743316881.5\nsamples = 4\nvalue = 215622.0", fillcolor="#f5ceb1"] ;
113 -> 117 ;
118 [label="BMI <= 26.0\nsquared_error = 240870794.226\nsamples = 26\nvalue = 163301.346", fillcolor="#f7dac6"] ;
112 -> 118 ;
119 [label="보장범위 <= 18.5\nsquared_error = 109014785.609\nsamples = 13\nvalue = 150454.923", fillcolor="#f8decb"] ;
118 -> 119 ;
120 [label="squared_error = 53705908.245\nsamples = 7\nvalue = 142936.429", fillcolor="#f9e0ce"] ;
119 -> 120 ;
121 [label="squared_error = 30652194.583\nsamples = 6\nvalue = 159226.5", fillcolor="#f8dbc7"] ;
119 -> 121 ;
122 [label="나이 <= 21.5\nsquared_error = 42665631.101\nsamples = 13\nvalue = 176147.769", fillcolor="#f7d7c1"] ;
118 -> 122 ;
123 [label="squared_error = 28053700.543\nsamples = 9\nvalue = 173039.111", fillcolor="#f7d8c2"] ;
122 -> 123 ;
124 [label="squared_error = 4876264.188\nsamples = 4\nvalue = 183142.25", fillcolor="#f6d6be"] ;
122 -> 124 ;
125 [label="BMI <= 27.65\nsquared_error = 2082086442.008\nsamples = 36\nvalue = 259127.861", fillcolor="#f3c3a0"] ;
111 -> 125 ;
126 [label="보장범위 <= 14.5\nsquared_error = 1698657463.2\nsamples = 25\nvalue = 245926.4", fillcolor="#f3c6a6"] ;
125 -> 126 ;
127 [label="납입기간 <= 25.0\nsquared_error = 534459607.745\nsamples = 19\nvalue = 234513.789", fillcolor="#f4c9aa"] ;
126 -> 127 ;
128 [label="나이 <= 53.5\nsquared_error = 333562614.686\nsamples = 13\nvalue = 245757.923", fillcolor="#f3c6a6"] ;
127 -> 128 ;
129 [label="squared_error = 157176339.837\nsamples = 7\nvalue = 235794.143", fillcolor="#f4c9a9"] ;
128 -> 129 ;
130 [label="squared_error = 288396619.222\nsamples = 6\nvalue = 257382.333", fillcolor="#f3c3a1"] ;
128 -> 130 ;
131 [label="squared_error = 102282439.917\nsamples = 6\nvalue = 210151.5", fillcolor="#f5cfb3"] ;
127 -> 131 ;
132 [label="squared_error = 3666738240.556\nsamples = 6\nvalue = 282066.333", fillcolor="#f1bd98"] ;
126 -> 132 ;
133 [label="squared_error = 1657229014.331\nsamples = 11\nvalue = 289131.182", fillcolor="#f1bb95"] ;
125 -> 133 ;
134 [label="납입기간 <= 25.0\nsquared_error = 3169529455.225\nsamples = 101\nvalue = 415033.772", fillcolor="#eb9c64"] ;
110 -> 134 ;
135 [label="보장범위 <= 13.5\nsquared_error = 1661264779.422\nsamples = 30\nvalue = 469897.667", fillcolor="#e88f4f"] ;
134 -> 135 ;
136 [label="BMI <= 35.05\nsquared_error = 543184977.658\nsamples = 25\nvalue = 458767.32", fillcolor="#e89153"] ;
135 -> 136 ;
137 [label="나이 <= 58.5\nsquared_error = 343757774.41\nsamples = 12\nvalue = 440760.583", fillcolor="#e9965a"] ;
136 -> 137 ;
138 [label="squared_error = 112682182.109\nsamples = 8\nvalue = 429330.875", fillcolor="#ea995e"] ;
137 -> 138 ;
139 [label="squared_error = 22079563.5\nsamples = 4\nvalue = 463620.0", fillcolor="#e89051"] ;
137 -> 139 ;
140 [label="나이 <= 53.0\nsquared_error = 151693108.379\nsamples = 13\nvalue = 475388.923", fillcolor="#e88d4c"] ;
136 -> 140 ;
141 [label="squared_error = 147356666.188\nsamples = 4\nvalue = 463470.25", fillcolor="#e89051"] ;
140 -> 141 ;
142 [label="squared_error = 62424762.543\nsamples = 9\nvalue = 480686.111", fillcolor="#e78c4a"] ;
140 -> 142 ;
143 [label="squared_error = 3535125280.64\nsamples = 5\nvalue = 525549.4", fillcolor="#e58139"] ;
135 -> 143 ;
144 [label="나이 <= 28.0\nsquared_error = 1997571833.624\nsamples = 71\nvalue = 391851.845", fillcolor="#eca26d"] ;
134 -> 144 ;
145 [label="보장범위 <= 17.5\nsquared_error = 430057929.879\nsamples = 27\nvalue = 359794.519", fillcolor="#edaa79"] ;
144 -> 145 ;
146 [label="BMI <= 32.75\nsquared_error = 130674238.603\nsamples = 21\nvalue = 350869.333", fillcolor="#eeac7d"] ;
145 -> 146 ;
147 [label="squared_error = 90595190.727\nsamples = 11\nvalue = 343765.0", fillcolor="#eeae80"] ;
146 -> 147 ;
148 [label="squared_error = 58171905.89\nsamples = 10\nvalue = 358684.1", fillcolor="#eeaa7a"] ;
146 -> 148 ;
149 [label="squared_error = 223272692.556\nsamples = 6\nvalue = 391032.667", fillcolor="#eca26d"] ;
145 -> 149 ;
150 [label="보장범위 <= 15.5\nsquared_error = 1941868805.601\nsamples = 44\nvalue = 411523.386", fillcolor="#eb9d65"] ;
144 -> 150 ;
151 [label="나이 <= 38.5\nsquared_error = 157256215.474\nsamples = 21\nvalue = 383385.048", fillcolor="#eca470"] ;
150 -> 151 ;
152 [label="자녀수 <= 0.5\nsquared_error = 111150171.582\nsamples = 15\nvalue = 377967.867", fillcolor="#eda572"] ;
151 -> 152 ;
153 [label="squared_error = 53199610.889\nsamples = 6\nvalue = 367482.333", fillcolor="#eda876"] ;
152 -> 153 ;
154 [label="squared_error = 27621201.728\nsamples = 9\nvalue = 384958.222", fillcolor="#eca470"] ;
152 -> 154 ;
155 [label="squared_error = 15745142.333\nsamples = 6\nvalue = 396928.0", fillcolor="#eca16b"] ;
151 -> 155 ;
156 [label="나이 <= 35.5\nsquared_error = 2188326268.514\nsamples = 23\nvalue = 437214.913", fillcolor="#ea975b"] ;
150 -> 156 ;
157 [label="squared_error = 6109763208.96\nsamples = 5\nvalue = 476098.8", fillcolor="#e88d4c"] ;
156 -> 157 ;
158 [label="BMI <= 37.6\nsquared_error = 562386944.139\nsamples = 18\nvalue = 426413.833", fillcolor="#ea995f"] ;
156 -> 158 ;
159 [label="squared_error = 129325663.64\nsamples = 10\nvalue = 413729.6", fillcolor="#eb9d64"] ;
158 -> 159 ;
160 [label="squared_error = 651211051.859\nsamples = 8\nvalue = 442269.125", fillcolor="#e99659"] ;
158 -> 160 ;
}