digraph Tree {
node [shape=box, style="filled", color="black", fontname="helvetica"] ;
edge [fontname="helvetica"] ;
0 [label="흡연여부 <= 0.5\nsquared_error = 14478620203.592\nsamples = 936\nvalue = 131006.561", fillcolor="#f9e2d1"] ;
1 [label="나이 <= 45.5\nsquared_error = 3482909120.153\nsamples = 751\nvalue = 83750.067", fillcolor="#fbede3"] ;
0 -> 1 [labeldistance=2.5, labelangle=45, headlabel="True"] ;
2 [label="보장범위 <= 13.5\nsquared_error = 1988987702.952\nsamples = 464\nvalue = 56275.884", fillcolor="#fdf4ee"] ;
1 -> 2 ;
3 [label="나이 <= 32.5\nsquared_error = 640412437.544\nsamples = 432\nvalue = 46801.581", fillcolor="#fdf6f1"] ;
2 -> 3 ;
4 [label="나이 <= 24.5\nsquared_error = 151862848.089\nsamples = 249\nvalue = 30322.108", fillcolor="#fefaf8"] ;
3 -> 4 ;
5 [label="자녀수 <= 1.5\nsquared_error = 82391758.805\nsamples = 139\nvalue = 22835.424", fillcolor="#fefcfb"] ;
4 -> 5 ;
6 [label="납입기간 <= 35.0\nsquared_error = 45122652.621\nsamples = 117\nvalue = 20236.573", fillcolor="#fffdfc"] ;
5 -> 6 ;
7 [label="보장범위 <= 8.5\nsquared_error = 51415702.645\nsamples = 53\nvalue = 24977.358", fillcolor="#fefcfa"] ;
6 -> 7 ;
8 [label="BMI <= 23.45\nsquared_error = 4819422.068\nsamples = 41\nvalue = 23573.073", fillcolor="#fefcfa"] ;
7 -> 8 ;
9 [label="squared_error = 1222159.583\nsamples = 6\nvalue = 26105.5", fillcolor="#fefbf9"] ;
8 -> 9 ;
10 [label="나이 <= 22.5\nsquared_error = 4148223.254\nsamples = 35\nvalue = 23138.943", fillcolor="#fefcfa"] ;
8 -> 10 ;
11 [label="자녀수 <= 0.5\nsquared_error = 3441839.361\nsamples = 26\nvalue = 22524.154", fillcolor="#fefcfb"] ;
10 -> 11 ;
12 [label="가입유형_인터넷 <= 0.5\nsquared_error = 2483699.083\nsamples = 22\nvalue = 22135.909", fillcolor="#fefcfb"] ;
11 -> 12 ;
13 [label="BMI <= 31.9\nsquared_error = 655830.698\nsamples = 13\nvalue = 21494.615", fillcolor="#fefdfb"] ;
12 -> 13 ;
14 [label="squared_error = 389997.25\nsamples = 8\nvalue = 21820.5", fillcolor="#fefcfb"] ;
13 -> 14 ;
15 [label="squared_error = 639368.96\nsamples = 5\nvalue = 20973.2", fillcolor="#fffdfb"] ;
13 -> 15 ;
16 [label="squared_error = 3671858.617\nsamples = 9\nvalue = 23062.222", fillcolor="#fefcfa"] ;
12 -> 16 ;
17 [label="squared_error = 3322870.75\nsamples = 4\nvalue = 24659.5", fillcolor="#fefcfa"] ;
11 -> 17 ;
18 [label="squared_error = 1942608.444\nsamples = 9\nvalue = 24915.0", fillcolor="#fefcfa"] ;
10 -> 18 ;
19 [label="가입유형_인터넷 <= 0.5\nsquared_error = 180861373.056\nsamples = 12\nvalue = 29775.333", fillcolor="#fefaf8"] ;
7 -> 19 ;
20 [label="squared_error = 398593595.5\nsamples = 4\nvalue = 38657.0", fillcolor="#fef8f4"] ;
19 -> 20 ;
21 [label="squared_error = 12832259.75\nsamples = 8\nvalue = 25334.5", fillcolor="#fefcfa"] ;
19 -> 21 ;
22 [label="보장범위 <= 9.5\nsquared_error = 5885881.832\nsamples = 64\nvalue = 16310.609", fillcolor="#fffefd"] ;
6 -> 22 ;
23 [label="나이 <= 20.5\nsquared_error = 6571597.506\nsamples = 41\nvalue = 15432.61", fillcolor="#fffefd"] ;
22 -> 23 ;
24 [label="보장범위 <= 8.5\nsquared_error = 4712453.97\nsamples = 27\nvalue = 14273.741", fillcolor="#fffefe"] ;
23 -> 24 ;
25 [label="나이 <= 18.5\nsquared_error = 598105.562\nsamples = 13\nvalue = 12091.769", fillcolor="#ffffff"] ;
24 -> 25 ;
26 [label="squared_error = 6676.917\nsamples = 6\nvalue = 11355.5", fillcolor="#ffffff"] ;
25 -> 26 ;
27 [label="squared_error = 242121.837\nsamples = 7\nvalue = 12722.857", fillcolor="#fffffe"] ;
25 -> 27 ;
28 [label="BMI <= 24.1\nsquared_error = 6844.408\nsamples = 14\nvalue = 16299.857", fillcolor="#fffefd"] ;
24 -> 28 ;
29 [label="squared_error = 7243.688\nsamples = 4\nvalue = 16221.25", fillcolor="#fffefd"] ;
28 -> 29 ;
30 [label="squared_error = 3224.41\nsamples = 10\nvalue = 16331.3", fillcolor="#fffefd"] ;
28 -> 30 ;
31 [label="나이 <= 22.5\nsquared_error = 2572007.102\nsamples = 14\nvalue = 17667.571", fillcolor="#fffdfd"] ;
23 -> 31 ;
32 [label="squared_error = 1610118.49\nsamples = 7\nvalue = 16443.286", fillcolor="#fffefd"] ;
31 -> 32 ;
33 [label="squared_error = 536144.694\nsamples = 7\nvalue = 18891.857", fillcolor="#fffdfc"] ;
31 -> 33 ;
34 [label="나이 <= 19.5\nsquared_error = 839704.628\nsamples = 23\nvalue = 17875.739", fillcolor="#fffdfc"] ;
22 -> 34 ;
35 [label="나이 <= 18.5\nsquared_error = 155224.692\nsamples = 17\nvalue = 17390.882", fillcolor="#fffefd"] ;
34 -> 35 ;
36 [label="squared_error = 6476.859\nsamples = 8\nvalue = 17120.875", fillcolor="#fffefd"] ;
35 -> 36 ;
37 [label="squared_error = 165038.321\nsamples = 9\nvalue = 17630.889", fillcolor="#fffdfd"] ;
35 -> 37 ;
38 [label="squared_error = 225768.25\nsamples = 6\nvalue = 19249.5", fillcolor="#fffdfc"] ;
34 -> 38 ;
39 [label="자녀수 <= 2.5\nsquared_error = 53651836.242\nsamples = 22\nvalue = 36656.591", fillcolor="#fef9f5"] ;
5 -> 39 ;
40 [label="squared_error = 20712265.36\nsamples = 10\nvalue = 30482.2", fillcolor="#fefaf8"] ;
39 -> 40 ;
41 [label="성별_여성 <= 0.5\nsquared_error = 22857848.91\nsamples = 12\nvalue = 41801.917", fillcolor="#fdf8f3"] ;
39 -> 41 ;
42 [label="squared_error = 2712607.806\nsamples = 6\nvalue = 44774.167", fillcolor="#fdf7f2"] ;
41 -> 42 ;
43 [label="squared_error = 25334549.889\nsamples = 6\nvalue = 38829.667", fillcolor="#fef8f4"] ;
41 -> 43 ;
44 [label="자녀수 <= 1.5\nsquared_error = 79321631.811\nsamples = 110\nvalue = 39782.555", fillcolor="#fef8f4"] ;
4 -> 44 ;
45 [label="나이 <= 29.5\nsquared_error = 41261021.265\nsamples = 71\nvalue = 35463.789", fillcolor="#fef9f6"] ;
44 -> 45 ;
46 [label="보장범위 <= 9.5\nsquared_error = 21562596.427\nsamples = 48\nvalue = 32229.104", fillcolor="#fefaf7"] ;
45 -> 46 ;
47 [label="보장범위 <= 8.5\nsquared_error = 6322292.787\nsamples = 19\nvalue = 27856.053", fillcolor="#fefbf9"] ;
46 -> 47 ;
48 [label="squared_error = 826899.806\nsamples = 6\nvalue = 24922.167", fillcolor="#fefcfa"] ;
47 -> 48 ;
49 [label="나이 <= 26.5\nsquared_error = 3052259.361\nsamples = 13\nvalue = 29210.154", fillcolor="#fefbf8"] ;
47 -> 49 ;
50 [label="squared_error = 1023923.959\nsamples = 7\nvalue = 27937.429", fillcolor="#fefbf9"] ;
49 -> 50 ;
51 [label="squared_error = 1324081.333\nsamples = 6\nvalue = 30695.0", fillcolor="#fefaf8"] ;
49 -> 51 ;
52 [label="보장범위 <= 10.5\nsquared_error = 10809567.405\nsamples = 29\nvalue = 35094.207", fillcolor="#fef9f6"] ;
46 -> 52 ;
53 [label="나이 <= 28.5\nsquared_error = 2377066.59\nsamples = 20\nvalue = 33271.1", fillcolor="#fefaf7"] ;
52 -> 53 ;
54 [label="자녀수 <= 0.5\nsquared_error = 1630470.734\nsamples = 16\nvalue = 32884.125", fillcolor="#fefaf7"] ;
53 -> 54 ;
55 [label="squared_error = 1137445.734\nsamples = 8\nvalue = 32237.375", fillcolor="#fefaf7"] ;
54 -> 55 ;
56 [label="squared_error = 1286924.609\nsamples = 8\nvalue = 33530.875", fillcolor="#fefaf6"] ;
54 -> 56 ;
57 [label="squared_error = 2368457.0\nsamples = 4\nvalue = 34819.0", fillcolor="#fef9f6"] ;
53 -> 57 ;
58 [label="squared_error = 5748990.469\nsamples = 9\nvalue = 39145.556", fillcolor="#fef8f4"] ;
52 -> 58 ;
59 [label="보장범위 <= 9.5\nsquared_error = 14963344.767\nsamples = 23\nvalue = 42214.435", fillcolor="#fdf7f3"] ;
45 -> 59 ;
60 [label="자녀수 <= 0.5\nsquared_error = 6466544.055\nsamples = 17\nvalue = 40419.059", fillcolor="#fef8f4"] ;
59 -> 60 ;
61 [label="squared_error = 3788565.556\nsamples = 9\nvalue = 38688.0", fillcolor="#fef8f4"] ;
60 -> 61 ;
62 [label="squared_error = 2315607.5\nsamples = 8\nvalue = 42366.5", fillcolor="#fdf7f3"] ;
60 -> 62 ;
63 [label="squared_error = 4028181.222\nsamples = 6\nvalue = 47301.333", fillcolor="#fdf6f1"] ;
59 -> 63 ;
64 [label="나이 <= 29.5\nsquared_error = 52838893.917\nsamples = 39\nvalue = 47644.923", fillcolor="#fdf6f1"] ;
44 -> 64 ;
65 [label="자녀수 <= 2.5\nsquared_error = 15862124.64\nsamples = 20\nvalue = 42974.6", fillcolor="#fdf7f3"] ;
64 -> 65 ;
66 [label="나이 <= 27.5\nsquared_error = 10202353.609\nsamples = 13\nvalue = 41373.923", fillcolor="#fdf8f3"] ;
65 -> 66 ;
67 [label="squared_error = 9705614.816\nsamples = 7\nvalue = 39496.571", fillcolor="#fef8f4"] ;
66 -> 67 ;
68 [label="squared_error = 1872857.806\nsamples = 6\nvalue = 43564.167", fillcolor="#fdf7f3"] ;
66 -> 68 ;
69 [label="squared_error = 12777958.204\nsamples = 7\nvalue = 45947.286", fillcolor="#fdf7f2"] ;
65 -> 69 ;
70 [label="보장범위 <= 10.5\nsquared_error = 44633565.839\nsamples = 19\nvalue = 52561.053", fillcolor="#fdf5ef"] ;
64 -> 70 ;
71 [label="BMI <= 34.0\nsquared_error = 14519320.862\nsamples = 15\nvalue = 49660.267", fillcolor="#fdf6f0"] ;
70 -> 71 ;
72 [label="squared_error = 6218630.889\nsamples = 9\nvalue = 52197.0", fillcolor="#fdf5ef"] ;
71 -> 72 ;
73 [label="squared_error = 2839045.806\nsamples = 6\nvalue = 45855.167", fillcolor="#fdf7f2"] ;
71 -> 73 ;
74 [label="squared_error = 7677648.5\nsamples = 4\nvalue = 63439.0", fillcolor="#fcf2eb"] ;
70 -> 74 ;
75 [label="보장범위 <= 12.5\nsquared_error = 432856908.424\nsamples = 183\nvalue = 69224.47", fillcolor="#fcf1e9"] ;
3 -> 75 ;
76 [label="보장범위 <= 10.5\nsquared_error = 202781320.392\nsamples = 176\nvalue = 66545.006", fillcolor="#fcf1ea"] ;
75 -> 76 ;
77 [label="나이 <= 37.5\nsquared_error = 50353835.445\nsamples = 68\nvalue = 54258.397", fillcolor="#fdf4ee"] ;
76 -> 77 ;
78 [label="보장범위 <= 9.5\nsquared_error = 19283236.036\nsamples = 38\nvalue = 49248.737", fillcolor="#fdf6f0"] ;
77 -> 78 ;
79 [label="squared_error = 7406613.959\nsamples = 7\nvalue = 42115.571", fillcolor="#fdf7f3"] ;
78 -> 79 ;
80 [label="납부유형_은행 <= 0.5\nsquared_error = 7881156.957\nsamples = 31\nvalue = 50859.452", fillcolor="#fdf5f0"] ;
78 -> 80 ;
81 [label="가입유형_홈쇼핑 <= 0.5\nsquared_error = 8538850.111\nsamples = 18\nvalue = 51611.0", fillcolor="#fdf5ef"] ;
80 -> 81 ;
82 [label="나이 <= 35.5\nsquared_error = 6987701.822\nsamples = 13\nvalue = 52300.846", fillcolor="#fdf5ef"] ;
81 -> 82 ;
83 [label="squared_error = 7808509.429\nsamples = 7\nvalue = 51274.0", fillcolor="#fdf5f0"] ;
82 -> 83 ;
84 [label="squared_error = 3364771.139\nsamples = 6\nvalue = 53498.833", fillcolor="#fdf5ef"] ;
82 -> 84 ;
85 [label="squared_error = 8117526.64\nsamples = 5\nvalue = 49817.4", fillcolor="#fdf6f0"] ;
81 -> 85 ;
86 [label="BMI <= 26.4\nsquared_error = 5105579.822\nsamples = 13\nvalue = 49818.846", fillcolor="#fdf6f0"] ;
80 -> 86 ;
87 [label="squared_error = 1643022.806\nsamples = 6\nvalue = 51038.167", fillcolor="#fdf5f0"] ;
86 -> 87 ;
88 [label="squared_error = 5706834.49\nsamples = 7\nvalue = 48773.714", fillcolor="#fdf6f1"] ;
86 -> 88 ;
89 [label="보장범위 <= 9.5\nsquared_error = 17654526.766\nsamples = 30\nvalue = 60603.967", fillcolor="#fdf3ec"] ;
77 -> 89 ;
90 [label="squared_error = 7021858.109\nsamples = 8\nvalue = 55965.125", fillcolor="#fdf4ee"] ;
89 -> 90 ;
91 [label="납부유형_카드 <= 0.5\nsquared_error = 10850446.603\nsamples = 22\nvalue = 62290.818", fillcolor="#fcf3eb"] ;
89 -> 91 ;
92 [label="squared_error = 11550683.222\nsamples = 6\nvalue = 65407.667", fillcolor="#fcf2ea"] ;
91 -> 92 ;
93 [label="자녀수 <= 0.5\nsquared_error = 5578692.75\nsamples = 16\nvalue = 61122.0", fillcolor="#fcf3ec"] ;
91 -> 93 ;
94 [label="squared_error = 3791868.531\nsamples = 7\nvalue = 59432.429", fillcolor="#fdf3ec"] ;
93 -> 94 ;
95 [label="squared_error = 3021272.321\nsamples = 9\nvalue = 62436.111", fillcolor="#fcf2eb"] ;
93 -> 95 ;
96 [label="나이 <= 38.5\nsquared_error = 143858924.648\nsamples = 108\nvalue = 74281.019", fillcolor="#fcf0e7"] ;
76 -> 96 ;
97 [label="보장범위 <= 11.5\nsquared_error = 18936677.652\nsamples = 32\nvalue = 64655.812", fillcolor="#fcf2ea"] ;
96 -> 97 ;
98 [label="나이 <= 35.5\nsquared_error = 6255684.881\nsamples = 19\nvalue = 61814.526", fillcolor="#fcf3ec"] ;
97 -> 98 ;
99 [label="squared_error = 2952311.49\nsamples = 10\nvalue = 60360.1", fillcolor="#fdf3ec"] ;
98 -> 99 ;
100 [label="squared_error = 4964153.802\nsamples = 9\nvalue = 63430.556", fillcolor="#fcf2eb"] ;
98 -> 100 ;
101 [label="성별_남성 <= 0.5\nsquared_error = 8427077.941\nsamples = 13\nvalue = 68808.462", fillcolor="#fcf1e9"] ;
97 -> 101 ;
102 [label="squared_error = 2716778.0\nsamples = 6\nvalue = 67276.0", fillcolor="#fcf1e9"] ;
101 -> 102 ;
103 [label="squared_error = 9583290.286\nsamples = 7\nvalue = 70122.0", fillcolor="#fcf1e8"] ;
101 -> 103 ;
104 [label="자녀수 <= 4.5\nsquared_error = 141024990.878\nsamples = 76\nvalue = 78333.737", fillcolor="#fcefe5"] ;
96 -> 104 ;
105 [label="나이 <= 42.5\nsquared_error = 80361304.71\nsamples = 72\nvalue = 76954.611", fillcolor="#fcefe6"] ;
104 -> 105 ;
106 [label="자녀수 <= 2.5\nsquared_error = 24895830.037\nsamples = 38\nvalue = 73002.447", fillcolor="#fcf0e7"] ;
105 -> 106 ;
107 [label="나이 <= 41.5\nsquared_error = 14087307.357\nsamples = 28\nvalue = 71040.0", fillcolor="#fcf0e8"] ;
106 -> 107 ;
108 [label="보장범위 <= 11.5\nsquared_error = 10078467.062\nsamples = 18\nvalue = 69773.222", fillcolor="#fcf1e9"] ;
107 -> 108 ;
109 [label="BMI <= 28.35\nsquared_error = 4392488.521\nsamples = 13\nvalue = 68277.308", fillcolor="#fcf1e9"] ;
108 -> 109 ;
110 [label="squared_error = 4957787.25\nsamples = 6\nvalue = 69276.5", fillcolor="#fcf1e9"] ;
109 -> 110 ;
111 [label="squared_error = 2318680.408\nsamples = 7\nvalue = 67420.857", fillcolor="#fcf1e9"] ;
109 -> 111 ;
112 [label="squared_error = 3916575.04\nsamples = 5\nvalue = 73662.6", fillcolor="#fcf0e7"] ;
108 -> 112 ;
113 [label="squared_error = 13215401.16\nsamples = 10\nvalue = 73320.2", fillcolor="#fcf0e7"] ;
107 -> 113 ;
114 [label="squared_error = 14182929.01\nsamples = 10\nvalue = 78497.3", fillcolor="#fcefe5"] ;
106 -> 114 ;
115 [label="BMI <= 36.4\nsquared_error = 105383945.253\nsamples = 34\nvalue = 81371.735", fillcolor="#fbeee4"] ;
105 -> 115 ;
116 [label="자녀수 <= 1.5\nsquared_error = 31742485.277\nsamples = 30\nvalue = 79853.7", fillcolor="#fceee5"] ;
115 -> 116 ;
117 [label="성별_여성 <= 0.5\nsquared_error = 3013359.29\nsamples = 13\nvalue = 74627.308", fillcolor="#fcefe7"] ;
116 -> 117 ;
118 [label="squared_error = 2432621.984\nsamples = 8\nvalue = 75300.625", fillcolor="#fcefe6"] ;
117 -> 118 ;
119 [label="squared_error = 2056577.2\nsamples = 5\nvalue = 73550.0", fillcolor="#fcf0e7"] ;
117 -> 119 ;
120 [label="나이 <= 44.5\nsquared_error = 16850505.993\nsamples = 17\nvalue = 83850.353", fillcolor="#fbede3"] ;
116 -> 120 ;
121 [label="squared_error = 11739269.359\nsamples = 8\nvalue = 81167.875", fillcolor="#fbeee4"] ;
120 -> 121 ;
122 [label="squared_error = 9312178.617\nsamples = 9\nvalue = 86234.778", fillcolor="#fbede2"] ;
120 -> 122 ;
123 [label="squared_error = 510787409.0\nsamples = 4\nvalue = 92757.0", fillcolor="#fbebe0"] ;
115 -> 123 ;
124 [label="squared_error = 582491520.5\nsamples = 4\nvalue = 103158.0", fillcolor="#fae9dc"] ;
104 -> 124 ;
125 [label="squared_error = 1498466353.551\nsamples = 7\nvalue = 136593.857", fillcolor="#f9e0cf"] ;
75 -> 125 ;
126 [label="납입기간 <= 35.0\nsquared_error = 2623762068.093\nsamples = 32\nvalue = 184178.969", fillcolor="#f6d5bc"] ;
2 -> 126 ;
127 [label="나이 <= 28.5\nsquared_error = 3262095724.247\nsamples = 18\nvalue = 202269.556", fillcolor="#f5d0b5"] ;
126 -> 127 ;
128 [label="squared_error = 359808455.967\nsamples = 11\nvalue = 230977.818", fillcolor="#f4c9aa"] ;
127 -> 128 ;
129 [label="squared_error = 4492536127.102\nsamples = 7\nvalue = 157156.571", fillcolor="#f8dbc7"] ;
127 -> 129 ;
130 [label="보장범위 <= 18.5\nsquared_error = 841276272.23\nsamples = 14\nvalue = 160919.643", fillcolor="#f7dac5"] ;
126 -> 130 ;
131 [label="squared_error = 356415517.472\nsamples = 6\nvalue = 131223.833", fillcolor="#f9e2d1"] ;
130 -> 131 ;
132 [label="squared_error = 47505390.25\nsamples = 8\nvalue = 183191.5", fillcolor="#f6d5bd"] ;
130 -> 132 ;
133 [label="보장범위 <= 11.5\nsquared_error = 2704839604.651\nsamples = 287\nvalue = 128168.258", fillcolor="#f9e2d2"] ;
1 -> 133 ;
134 [label="나이 <= 54.5\nsquared_error = 386919838.18\nsamples = 249\nvalue = 113127.02", fillcolor="#fae6d8"] ;
133 -> 134 ;
135 [label="납입기간 <= 25.0\nsquared_error = 205625137.605\nsamples = 121\nvalue = 98254.488", fillcolor="#fbeade"] ;
134 -> 135 ;
136 [label="보장범위 <= 10.5\nsquared_error = 194667790.73\nsamples = 75\nvalue = 104887.173", fillcolor="#fae8db"] ;
135 -> 136 ;
137 [label="나이 <= 52.5\nsquared_error = 39980362.467\nsamples = 55\nvalue = 99660.473", fillcolor="#fbe9dd"] ;
136 -> 137 ;
138 [label="자녀수 <= 0.5\nsquared_error = 37116515.033\nsamples = 35\nvalue = 97191.771", fillcolor="#fbeade"] ;
137 -> 138 ;
139 [label="나이 <= 50.5\nsquared_error = 28447267.408\nsamples = 14\nvalue = 92879.857", fillcolor="#fbebe0"] ;
138 -> 139 ;
140 [label="squared_error = 4959368.75\nsamples = 4\nvalue = 86635.5", fillcolor="#fbede2"] ;
139 -> 140 ;
141 [label="squared_error = 16006909.04\nsamples = 10\nvalue = 95377.6", fillcolor="#fbeadf"] ;
139 -> 141 ;
142 [label="자녀수 <= 1.5\nsquared_error = 22237563.664\nsamples = 21\nvalue = 100066.381", fillcolor="#fbe9dd"] ;
138 -> 142 ;
143 [label="성별_여성 <= 0.5\nsquared_error = 16272311.385\nsamples = 13\nvalue = 97965.0", fillcolor="#fbeade"] ;
142 -> 143 ;
144 [label="squared_error = 12783399.84\nsamples = 5\nvalue = 101059.6", fillcolor="#fae9dc"] ;
143 -> 144 ;
145 [label="squared_error = 8726698.359\nsamples = 8\nvalue = 96030.875", fillcolor="#fbeade"] ;
143 -> 145 ;
146 [label="squared_error = 13094943.609\nsamples = 8\nvalue = 103481.125", fillcolor="#fae8dc"] ;
142 -> 146 ;
147 [label="성별_남성 <= 0.5\nsquared_error = 15662381.11\nsamples = 20\nvalue = 103980.7", fillcolor="#fae8db"] ;
137 -> 147 ;
148 [label="나이 <= 53.5\nsquared_error = 11050046.225\nsamples = 13\nvalue = 102095.077", fillcolor="#fae9dc"] ;
147 -> 148 ;
149 [label="squared_error = 7294981.102\nsamples = 7\nvalue = 99889.429", fillcolor="#fbe9dd"] ;
148 -> 149 ;
150 [label="squared_error = 3133608.222\nsamples = 6\nvalue = 104668.333", fillcolor="#fae8db"] ;
148 -> 150 ;
151 [label="squared_error = 5361832.816\nsamples = 7\nvalue = 107482.571", fillcolor="#fae7da"] ;
147 -> 151 ;
152 [label="나이 <= 51.5\nsquared_error = 338337226.44\nsamples = 20\nvalue = 119260.6", fillcolor="#fae5d5"] ;
136 -> 152 ;
153 [label="squared_error = 1301860771.188\nsamples = 4\nvalue = 135013.25", fillcolor="#f9e1cf"] ;
152 -> 153 ;
154 [label="나이 <= 53.5\nsquared_error = 19910720.871\nsamples = 16\nvalue = 115322.438", fillcolor="#fae6d7"] ;
152 -> 154 ;
155 [label="squared_error = 4239613.44\nsamples = 10\nvalue = 113588.6", fillcolor="#fae6d8"] ;
154 -> 155 ;
156 [label="squared_error = 32668377.806\nsamples = 6\nvalue = 118212.167", fillcolor="#fae5d6"] ;
154 -> 156 ;
157 [label="자녀수 <= 1.5\nsquared_error = 34817353.002\nsamples = 46\nvalue = 87440.326", fillcolor="#fbece2"] ;
135 -> 157 ;
158 [label="나이 <= 48.5\nsquared_error = 28792367.59\nsamples = 32\nvalue = 85306.688", fillcolor="#fbede3"] ;
157 -> 158 ;
159 [label="성별_남성 <= 0.5\nsquared_error = 16784318.681\nsamples = 23\nvalue = 83829.435", fillcolor="#fbede3"] ;
158 -> 159 ;
160 [label="squared_error = 12177823.01\nsamples = 10\nvalue = 81143.7", fillcolor="#fbeee4"] ;
159 -> 160 ;
161 [label="가입유형_인터넷 <= 0.5\nsquared_error = 10511034.852\nsamples = 13\nvalue = 85895.385", fillcolor="#fbede2"] ;
159 -> 161 ;
162 [label="squared_error = 4154154.173\nsamples = 9\nvalue = 84665.222", fillcolor="#fbede3"] ;
161 -> 162 ;
163 [label="squared_error = 13748013.688\nsamples = 4\nvalue = 88663.25", fillcolor="#fbece1"] ;
161 -> 163 ;
164 [label="squared_error = 39650531.654\nsamples = 9\nvalue = 89081.889", fillcolor="#fbece1"] ;
158 -> 164 ;
165 [label="성별_여성 <= 0.5\nsquared_error = 14399192.883\nsamples = 14\nvalue = 92317.214", fillcolor="#fbebe0"] ;
157 -> 165 ;
166 [label="squared_error = 2731450.5\nsamples = 4\nvalue = 95149.0", fillcolor="#fbeadf"] ;
165 -> 166 ;
167 [label="squared_error = 14575644.05\nsamples = 10\nvalue = 91184.5", fillcolor="#fbebe0"] ;
165 -> 167 ;
168 [label="나이 <= 60.5\nsquared_error = 151543364.635\nsamples = 128\nvalue = 127186.211", fillcolor="#f9e3d2"] ;
134 -> 168 ;
169 [label="보장범위 <= 10.5\nsquared_error = 65523688.366\nsamples = 82\nvalue = 120320.78", fillcolor="#f9e4d5"] ;
168 -> 169 ;
170 [label="squared_error = 2926242.512\nsamples = 11\nvalue = 107604.182", fillcolor="#fae7da"] ;
169 -> 170 ;
171 [label="나이 <= 58.5\nsquared_error = 46286332.266\nsamples = 71\nvalue = 122290.958", fillcolor="#f9e4d4"] ;
169 -> 171 ;
172 [label="자녀수 <= 1.5\nsquared_error = 33532606.471\nsamples = 45\nvalue = 119389.2", fillcolor="#fae5d5"] ;
171 -> 172 ;
173 [label="나이 <= 56.5\nsquared_error = 16339072.613\nsamples = 33\nvalue = 116991.848", fillcolor="#fae5d6"] ;
172 -> 173 ;
174 [label="squared_error = 8127628.512\nsamples = 11\nvalue = 114465.818", fillcolor="#fae6d7"] ;
173 -> 174 ;
175 [label="성별_남성 <= 0.5\nsquared_error = 15659172.845\nsamples = 22\nvalue = 118254.864", fillcolor="#fae5d6"] ;
173 -> 175 ;
176 [label="squared_error = 3717509.61\nsamples = 10\nvalue = 115540.7", fillcolor="#fae5d7"] ;
175 -> 176 ;
177 [label="BMI <= 31.45\nsquared_error = 14355902.389\nsamples = 12\nvalue = 120516.667", fillcolor="#f9e4d5"] ;
175 -> 177 ;
178 [label="squared_error = 4379319.609\nsamples = 8\nvalue = 118862.875", fillcolor="#fae5d6"] ;
177 -> 178 ;
179 [label="squared_error = 17898906.688\nsamples = 4\nvalue = 123824.25", fillcolor="#f9e3d4"] ;
177 -> 179 ;
180 [label="가입유형_인터넷 <= 0.5\nsquared_error = 21545852.243\nsamples = 12\nvalue = 125981.917", fillcolor="#f9e3d3"] ;
172 -> 180 ;
181 [label="squared_error = 18929974.472\nsamples = 6\nvalue = 128271.167", fillcolor="#f9e2d2"] ;
180 -> 181 ;
182 [label="squared_error = 13680398.889\nsamples = 6\nvalue = 123692.667", fillcolor="#f9e3d4"] ;
180 -> 182 ;
183 [label="자녀수 <= 1.5\nsquared_error = 28563442.485\nsamples = 26\nvalue = 127313.231", fillcolor="#f9e3d2"] ;
171 -> 183 ;
184 [label="성별_남성 <= 0.5\nsquared_error = 16973503.926\nsamples = 22\nvalue = 125980.727", fillcolor="#f9e3d3"] ;
183 -> 184 ;
185 [label="squared_error = 10395824.264\nsamples = 11\nvalue = 123705.909", fillcolor="#f9e3d4"] ;
184 -> 185 ;
186 [label="squared_error = 13201588.066\nsamples = 11\nvalue = 128255.545", fillcolor="#f9e2d2"] ;
184 -> 186 ;
187 [label="squared_error = 28831635.5\nsamples = 4\nvalue = 134642.0", fillcolor="#f9e1d0"] ;
183 -> 187 ;
188 [label="자녀수 <= 1.5\nsquared_error = 71083220.59\nsamples = 46\nvalue = 139424.587", fillcolor="#f9e0ce"] ;
168 -> 188 ;
189 [label="나이 <= 62.5\nsquared_error = 32419650.427\nsamples = 39\nvalue = 137020.667", fillcolor="#f9e0cf"] ;
188 -> 189 ;
190 [label="성별_여성 <= 0.5\nsquared_error = 14606020.094\nsamples = 19\nvalue = 132845.895", fillcolor="#f9e1d0"] ;
189 -> 190 ;
191 [label="squared_error = 7305043.24\nsamples = 10\nvalue = 134629.4", fillcolor="#f9e1d0"] ;
190 -> 191 ;
192 [label="squared_error = 15256867.284\nsamples = 9\nvalue = 130864.222", fillcolor="#f9e2d1"] ;
190 -> 192 ;
193 [label="성별_여성 <= 0.5\nsquared_error = 17055894.21\nsamples = 20\nvalue = 140986.7", fillcolor="#f8dfcd"] ;
189 -> 193 ;
194 [label="squared_error = 9003143.76\nsamples = 10\nvalue = 143430.8", fillcolor="#f8dfcc"] ;
193 -> 194 ;
195 [label="squared_error = 13161395.04\nsamples = 10\nvalue = 138542.6", fillcolor="#f9e0ce"] ;
193 -> 195 ;
196 [label="squared_error = 74918499.837\nsamples = 7\nvalue = 152817.857", fillcolor="#f8dcc9"] ;
188 -> 196 ;
197 [label="납입기간 <= 25.0\nsquared_error = 6696841740.208\nsamples = 38\nvalue = 226727.947", fillcolor="#f4caac"] ;
133 -> 197 ;
198 [label="보장범위 <= 12.5\nsquared_error = 1927182016.998\nsamples = 24\nvalue = 273656.458", fillcolor="#f2bf9a"] ;
197 -> 198 ;
199 [label="자녀수 <= 0.5\nsquared_error = 1274820172.99\nsamples = 20\nvalue = 261459.1", fillcolor="#f2c29f"] ;
198 -> 199 ;
200 [label="squared_error = 994352976.36\nsamples = 10\nvalue = 246842.8", fillcolor="#f3c5a4"] ;
199 -> 200 ;
201 [label="squared_error = 1128014918.24\nsamples = 10\nvalue = 276075.4", fillcolor="#f2be99"] ;
199 -> 201 ;
202 [label="squared_error = 725724727.688\nsamples = 4\nvalue = 334643.25", fillcolor="#efb083"] ;
198 -> 202 ;
203 [label="보장범위 <= 13.0\nsquared_error = 4626033669.066\nsamples = 14\nvalue = 146279.071", fillcolor="#f8decb"] ;
197 -> 203 ;
204 [label="squared_error = 15517581.16\nsamples = 10\nvalue = 104250.2", fillcolor="#fae8db"] ;
203 -> 204 ;
205 [label="squared_error = 696096095.188\nsamples = 4\nvalue = 251351.25", fillcolor="#f3c4a3"] ;
203 -> 205 ;
206 [label="BMI <= 30.05\nsquared_error = 13248792157.75\nsamples = 185\nvalue = 322842.384", fillcolor="#efb387"] ;
0 -> 206 [labeldistance=2.5, labelangle=-45, headlabel="False"] ;
207 [label="나이 <= 41.0\nsquared_error = 2861028417.526\nsamples = 84\nvalue = 211993.214", fillcolor="#f5ceb2"] ;
206 -> 207 ;
208 [label="보장범위 <= 16.0\nsquared_error = 529286551.76\nsamples = 48\nvalue = 176642.229", fillcolor="#f7d6bf"] ;
207 -> 208 ;
209 [label="보장범위 <= 14.5\nsquared_error = 411220068.653\nsamples = 22\nvalue = 192408.727", fillcolor="#f6d3b9"] ;
208 -> 209 ;
210 [label="BMI <= 25.6\nsquared_error = 191064817.951\nsamples = 18\nvalue = 187250.222", fillcolor="#f6d4bb"] ;
209 -> 210 ;
211 [label="squared_error = 102970141.868\nsamples = 11\nvalue = 178688.364", fillcolor="#f7d6bf"] ;
210 -> 211 ;
212 [label="squared_error = 33285561.102\nsamples = 7\nvalue = 200704.571", fillcolor="#f5d1b6"] ;
210 -> 212 ;
213 [label="squared_error = 743316881.5\nsamples = 4\nvalue = 215622.0", fillcolor="#f5cdb0"] ;
209 -> 213 ;
214 [label="BMI <= 26.0\nsquared_error = 240870794.226\nsamples = 26\nvalue = 163301.346", fillcolor="#f7dac4"] ;
208 -> 214 ;
215 [label="보장범위 <= 18.5\nsquared_error = 109014785.609\nsamples = 13\nvalue = 150454.923", fillcolor="#f8ddc9"] ;
214 -> 215 ;
216 [label="squared_error = 53705908.245\nsamples = 7\nvalue = 142936.429", fillcolor="#f8dfcc"] ;
215 -> 216 ;
217 [label="squared_error = 30652194.583\nsamples = 6\nvalue = 159226.5", fillcolor="#f8dbc6"] ;
215 -> 217 ;
218 [label="나이 <= 21.5\nsquared_error = 42665631.101\nsamples = 13\nvalue = 176147.769", fillcolor="#f7d7c0"] ;
214 -> 218 ;
219 [label="squared_error = 28053700.543\nsamples = 9\nvalue = 173039.111", fillcolor="#f7d7c1"] ;
218 -> 219 ;
220 [label="squared_error = 4876264.188\nsamples = 4\nvalue = 183142.25", fillcolor="#f6d5bd"] ;
218 -> 220 ;
221 [label="BMI <= 27.65\nsquared_error = 2082086442.008\nsamples = 36\nvalue = 259127.861", fillcolor="#f2c2a0"] ;
207 -> 221 ;
222 [label="보장범위 <= 14.5\nsquared_error = 1698657463.2\nsamples = 25\nvalue = 245926.4", fillcolor="#f3c6a5"] ;
221 -> 222 ;
223 [label="나이 <= 47.5\nsquared_error = 534459607.745\nsamples = 19\nvalue = 234513.789", fillcolor="#f4c8a9"] ;
222 -> 223 ;
224 [label="squared_error = 102282439.917\nsamples = 6\nvalue = 210151.5", fillcolor="#f5ceb2"] ;
223 -> 224 ;
225 [label="나이 <= 53.5\nsquared_error = 333562614.686\nsamples = 13\nvalue = 245757.923", fillcolor="#f3c6a5"] ;
223 -> 225 ;
226 [label="squared_error = 157176339.837\nsamples = 7\nvalue = 235794.143", fillcolor="#f4c8a9"] ;
225 -> 226 ;
227 [label="squared_error = 288396619.222\nsamples = 6\nvalue = 257382.333", fillcolor="#f3c3a0"] ;
225 -> 227 ;
228 [label="squared_error = 3666738240.556\nsamples = 6\nvalue = 282066.333", fillcolor="#f1bd97"] ;
222 -> 228 ;
229 [label="squared_error = 1657229014.331\nsamples = 11\nvalue = 289131.182", fillcolor="#f1bb94"] ;
221 -> 229 ;
230 [label="납입기간 <= 25.0\nsquared_error = 3169529455.225\nsamples = 101\nvalue = 415033.772", fillcolor="#eb9c64"] ;
206 -> 230 ;
231 [label="보장범위 <= 13.5\nsquared_error = 1661264779.422\nsamples = 30\nvalue = 469897.667", fillcolor="#e88f4e"] ;
230 -> 231 ;
232 [label="BMI <= 35.05\nsquared_error = 543184977.658\nsamples = 25\nvalue = 458767.32", fillcolor="#e89153"] ;
231 -> 232 ;
233 [label="나이 <= 58.5\nsquared_error = 343757774.41\nsamples = 12\nvalue = 440760.583", fillcolor="#e9965a"] ;
232 -> 233 ;
234 [label="squared_error = 112682182.109\nsamples = 8\nvalue = 429330.875", fillcolor="#ea995e"] ;
233 -> 234 ;
235 [label="squared_error = 22079563.5\nsamples = 4\nvalue = 463620.0", fillcolor="#e89051"] ;
233 -> 235 ;
236 [label="나이 <= 53.0\nsquared_error = 151693108.379\nsamples = 13\nvalue = 475388.923", fillcolor="#e88d4c"] ;
232 -> 236 ;
237 [label="squared_error = 147356666.188\nsamples = 4\nvalue = 463470.25", fillcolor="#e89051"] ;
236 -> 237 ;
238 [label="squared_error = 62424762.543\nsamples = 9\nvalue = 480686.111", fillcolor="#e78c4a"] ;
236 -> 238 ;
239 [label="squared_error = 3535125280.64\nsamples = 5\nvalue = 525549.4", fillcolor="#e58139"] ;
231 -> 239 ;
240 [label="나이 <= 28.0\nsquared_error = 1997571833.624\nsamples = 71\nvalue = 391851.845", fillcolor="#eca26c"] ;
230 -> 240 ;
241 [label="보장범위 <= 17.5\nsquared_error = 430057929.879\nsamples = 27\nvalue = 359794.519", fillcolor="#edaa79"] ;
240 -> 241 ;
242 [label="BMI <= 32.75\nsquared_error = 130674238.603\nsamples = 21\nvalue = 350869.333", fillcolor="#eeac7c"] ;
241 -> 242 ;
243 [label="squared_error = 90595190.727\nsamples = 11\nvalue = 343765.0", fillcolor="#eeae7f"] ;
242 -> 243 ;
244 [label="squared_error = 58171905.89\nsamples = 10\nvalue = 358684.1", fillcolor="#edaa79"] ;
242 -> 244 ;
245 [label="squared_error = 223272692.556\nsamples = 6\nvalue = 391032.667", fillcolor="#eca26d"] ;
241 -> 245 ;
246 [label="보장범위 <= 15.5\nsquared_error = 1941868805.601\nsamples = 44\nvalue = 411523.386", fillcolor="#eb9d65"] ;
240 -> 246 ;
247 [label="나이 <= 38.5\nsquared_error = 157256215.474\nsamples = 21\nvalue = 383385.048", fillcolor="#eca470"] ;
246 -> 247 ;
248 [label="자녀수 <= 0.5\nsquared_error = 111150171.582\nsamples = 15\nvalue = 377967.867", fillcolor="#eca572"] ;
247 -> 248 ;
249 [label="squared_error = 53199610.889\nsamples = 6\nvalue = 367482.333", fillcolor="#eda876"] ;
248 -> 249 ;
250 [label="squared_error = 27621201.728\nsamples = 9\nvalue = 384958.222", fillcolor="#eca36f"] ;
248 -> 250 ;
251 [label="squared_error = 15745142.333\nsamples = 6\nvalue = 396928.0", fillcolor="#eca16b"] ;
247 -> 251 ;
252 [label="나이 <= 35.5\nsquared_error = 2188326268.514\nsamples = 23\nvalue = 437214.913", fillcolor="#e9975b"] ;
246 -> 252 ;
253 [label="squared_error = 6109763208.96\nsamples = 5\nvalue = 476098.8", fillcolor="#e88d4c"] ;
252 -> 253 ;
254 [label="BMI <= 37.6\nsquared_error = 562386944.139\nsamples = 18\nvalue = 426413.833", fillcolor="#ea995f"] ;
252 -> 254 ;
255 [label="squared_error = 129325663.64\nsamples = 10\nvalue = 413729.6", fillcolor="#eb9c64"] ;
254 -> 255 ;
256 [label="squared_error = 651211051.859\nsamples = 8\nvalue = 442269.125", fillcolor="#e99559"] ;
254 -> 256 ;
}