digraph Tree {
node [shape=box, style="filled", color="black", fontname="helvetica"] ;
edge [fontname="helvetica"] ;
0 [label="HANDSET_ASAD90 <= 0.5\nsquared_error = 0.154\nsamples = 651\nvalue = 0.19", fillcolor="#fae7d9"] ;
1 [label="DROPPED_CALLS <= 11.5\nsquared_error = 0.124\nsamples = 606\nvalue = 0.145", fillcolor="#fbede2"] ;
0 -> 1 [labeldistance=2.5, labelangle=45, headlabel="True"] ;
2 [label="HANDSET_CAS30 <= 0.5\nsquared_error = 0.098\nsamples = 579\nvalue = 0.111", fillcolor="#fcf1e9"] ;
1 -> 2 ;
3 [label="PEAK_CALLS_TIME <= 89.1\nsquared_error = 0.079\nsamples = 558\nvalue = 0.086", fillcolor="#fdf4ee"] ;
2 -> 3 ;
4 [label="HANDSET_S50 <= 0.5\nsquared_error = 0.238\nsamples = 36\nvalue = 0.389", fillcolor="#f5ceb2"] ;
3 -> 4 ;
5 [label="HANDSET_BS110 <= 0.5\nsquared_error = 0.155\nsamples = 26\nvalue = 0.192", fillcolor="#fae7d9"] ;
4 -> 5 ;
6 [label="TOTAL_CALLS_NO <= 130.0\nsquared_error = 0.059\nsamples = 16\nvalue = 0.062", fillcolor="#fdf7f3"] ;
5 -> 6 ;
7 [label="squared_error = 0.16\nsamples = 5\nvalue = 0.2", fillcolor="#fae6d7"] ;
6 -> 7 ;
8 [label="squared_error = 0.0\nsamples = 11\nvalue = 0.0", fillcolor="#ffffff"] ;
6 -> 8 ;
9 [label="squared_error = 0.24\nsamples = 10\nvalue = 0.4", fillcolor="#f5cdb0"] ;
5 -> 9 ;
10 [label="squared_error = 0.09\nsamples = 10\nvalue = 0.9", fillcolor="#e88e4d"] ;
4 -> 10 ;
11 [label="AGE <= 25.5\nsquared_error = 0.061\nsamples = 522\nvalue = 0.065", fillcolor="#fdf7f2"] ;
3 -> 11 ;
12 [label="HANDSET_S50 <= 0.5\nsquared_error = 0.116\nsamples = 195\nvalue = 0.133", fillcolor="#fceee5"] ;
11 -> 12 ;
13 [label="SERVICE_DURATION <= 15.785\nsquared_error = 0.057\nsamples = 148\nvalue = 0.061", fillcolor="#fdf7f3"] ;
12 -> 13 ;
14 [label="SERVICE_DURATION <= 13.7\nsquared_error = 0.182\nsamples = 25\nvalue = 0.24", fillcolor="#f9e1cf"] ;
13 -> 14 ;
15 [label="squared_error = 0.062\nsamples = 15\nvalue = 0.067", fillcolor="#fdf7f2"] ;
14 -> 15 ;
16 [label="squared_error = 0.25\nsamples = 10\nvalue = 0.5", fillcolor="#f2c09c"] ;
14 -> 16 ;
17 [label="HANDSET_S80 <= 0.5\nsquared_error = 0.024\nsamples = 123\nvalue = 0.024", fillcolor="#fefcfa"] ;
13 -> 17 ;
18 [label="squared_error = 0.0\nsamples = 107\nvalue = 0.0", fillcolor="#ffffff"] ;
17 -> 18 ;
19 [label="PEAK_CALLS_TIME <= 324.0\nsquared_error = 0.152\nsamples = 16\nvalue = 0.188", fillcolor="#fae7da"] ;
17 -> 19 ;
20 [label="squared_error = 0.0\nsamples = 9\nvalue = 0.0", fillcolor="#ffffff"] ;
19 -> 20 ;
21 [label="squared_error = 0.245\nsamples = 7\nvalue = 0.429", fillcolor="#f4c9aa"] ;
19 -> 21 ;
22 [label="GENDER_M <= 0.5\nsquared_error = 0.231\nsamples = 47\nvalue = 0.362", fillcolor="#f6d1b7"] ;
12 -> 22 ;
23 [label="squared_error = 0.0\nsamples = 7\nvalue = 1.0", fillcolor="#e58139"] ;
22 -> 23 ;
24 [label="PEAK_CALLS_TIME <= 1324.2\nsquared_error = 0.188\nsamples = 40\nvalue = 0.25", fillcolor="#f8e0ce"] ;
22 -> 24 ;
25 [label="TOTAL_CALLS_TIME <= 1064.7\nsquared_error = 0.142\nsamples = 35\nvalue = 0.171", fillcolor="#fbe9dd"] ;
24 -> 25 ;
26 [label="DROPPED_CALLS <= 3.5\nsquared_error = 0.076\nsamples = 24\nvalue = 0.083", fillcolor="#fdf4ee"] ;
25 -> 26 ;
27 [label="squared_error = 0.0\nsamples = 17\nvalue = 0.0", fillcolor="#ffffff"] ;
26 -> 27 ;
28 [label="squared_error = 0.204\nsamples = 7\nvalue = 0.286", fillcolor="#f8dbc6"] ;
26 -> 28 ;
29 [label="squared_error = 0.231\nsamples = 11\nvalue = 0.364", fillcolor="#f6d1b7"] ;
25 -> 29 ;
30 [label="squared_error = 0.16\nsamples = 5\nvalue = 0.8", fillcolor="#ea9a61"] ;
24 -> 30 ;
31 [label="USAGE_BAND_MedLow <= 0.5\nsquared_error = 0.024\nsamples = 327\nvalue = 0.024", fillcolor="#fefcfa"] ;
11 -> 31 ;
32 [label="PEAK_CALLS_NO <= 14.5\nsquared_error = 0.013\nsamples = 299\nvalue = 0.013", fillcolor="#fffdfc"] ;
31 -> 32 ;
33 [label="TOTAL_CALLS_TIME <= 1327.05\nsquared_error = 0.109\nsamples = 16\nvalue = 0.125", fillcolor="#fcefe6"] ;
32 -> 33 ;
34 [label="squared_error = 0.0\nsamples = 11\nvalue = 0.0", fillcolor="#ffffff"] ;
33 -> 34 ;
35 [label="squared_error = 0.24\nsamples = 5\nvalue = 0.4", fillcolor="#f5cdb0"] ;
33 -> 35 ;
36 [label="SERVICE_DURATION <= 56.765\nsquared_error = 0.007\nsamples = 283\nvalue = 0.007", fillcolor="#fffefe"] ;
32 -> 36 ;
37 [label="PEAK_CALLS_NO <= 62.5\nsquared_error = 0.004\nsamples = 274\nvalue = 0.004", fillcolor="#fffffe"] ;
36 -> 37 ;
38 [label="TOTAL_CALLS_TIME <= 1204.4\nsquared_error = 0.026\nsamples = 37\nvalue = 0.027", fillcolor="#fefcfa"] ;
37 -> 38 ;
39 [label="squared_error = 0.0\nsamples = 32\nvalue = 0.0", fillcolor="#ffffff"] ;
38 -> 39 ;
40 [label="squared_error = 0.16\nsamples = 5\nvalue = 0.2", fillcolor="#fae6d7"] ;
38 -> 40 ;
41 [label="squared_error = 0.0\nsamples = 237\nvalue = 0.0", fillcolor="#ffffff"] ;
37 -> 41 ;
42 [label="squared_error = 0.099\nsamples = 9\nvalue = 0.111", fillcolor="#fcf1e9"] ;
36 -> 42 ;
43 [label="WEEKEND_CALLS_NO <= 3.5\nsquared_error = 0.122\nsamples = 28\nvalue = 0.143", fillcolor="#fbede3"] ;
31 -> 43 ;
44 [label="squared_error = 0.0\nsamples = 12\nvalue = 0.0", fillcolor="#ffffff"] ;
43 -> 44 ;
45 [label="CHARGE_TYPE_Play 100 <= 0.5\nsquared_error = 0.188\nsamples = 16\nvalue = 0.25", fillcolor="#f8e0ce"] ;
43 -> 45 ;
46 [label="squared_error = 0.09\nsamples = 10\nvalue = 0.1", fillcolor="#fcf2eb"] ;
45 -> 46 ;
47 [label="squared_error = 0.25\nsamples = 6\nvalue = 0.5", fillcolor="#f2c09c"] ;
45 -> 47 ;
48 [label="AGE <= 25.5\nsquared_error = 0.181\nsamples = 21\nvalue = 0.762", fillcolor="#eb9f68"] ;
2 -> 48 ;
49 [label="squared_error = 0.0\nsamples = 10\nvalue = 1.0", fillcolor="#e58139"] ;
48 -> 49 ;
50 [label="squared_error = 0.248\nsamples = 11\nvalue = 0.545", fillcolor="#f1ba93"] ;
48 -> 50 ;
51 [label="WEEKEND_CALLS_NO <= 30.0\nsquared_error = 0.099\nsamples = 27\nvalue = 0.889", fillcolor="#e88f4f"] ;
1 -> 51 ;
52 [label="PEAK_CALLS_NO <= 579.0\nsquared_error = 0.043\nsamples = 22\nvalue = 0.955", fillcolor="#e68742"] ;
51 -> 52 ;
53 [label="squared_error = 0.0\nsamples = 17\nvalue = 1.0", fillcolor="#e58139"] ;
52 -> 53 ;
54 [label="squared_error = 0.16\nsamples = 5\nvalue = 0.8", fillcolor="#ea9a61"] ;
52 -> 54 ;
55 [label="squared_error = 0.24\nsamples = 5\nvalue = 0.6", fillcolor="#efb388"] ;
51 -> 55 ;
56 [label="PEAK_CALLS_NO <= 333.5\nsquared_error = 0.16\nsamples = 45\nvalue = 0.8", fillcolor="#ea9a61"] ;
0 -> 56 [labeldistance=2.5, labelangle=-45, headlabel="False"] ;
57 [label="TOTAL_CALLS_NO <= 120.0\nsquared_error = 0.096\nsamples = 28\nvalue = 0.893", fillcolor="#e88e4e"] ;
56 -> 57 ;
58 [label="squared_error = 0.24\nsamples = 5\nvalue = 0.6", fillcolor="#efb388"] ;
57 -> 58 ;
59 [label="SERVICE_DURATION <= 47.75\nsquared_error = 0.042\nsamples = 23\nvalue = 0.957", fillcolor="#e68642"] ;
57 -> 59 ;
60 [label="squared_error = 0.0\nsamples = 18\nvalue = 1.0", fillcolor="#e58139"] ;
59 -> 60 ;
61 [label="squared_error = 0.16\nsamples = 5\nvalue = 0.8", fillcolor="#ea9a61"] ;
59 -> 61 ;
62 [label="TOTAL_CALLS_NO <= 704.0\nsquared_error = 0.228\nsamples = 17\nvalue = 0.647", fillcolor="#eead7f"] ;
56 -> 62 ;
63 [label="squared_error = 0.248\nsamples = 11\nvalue = 0.455", fillcolor="#f3c6a5"] ;
62 -> 63 ;
64 [label="squared_error = 0.0\nsamples = 6\nvalue = 1.0", fillcolor="#e58139"] ;
62 -> 64 ;
}